digraph Tree {
node [shape=box, style="filled", color="black", fontname="helvetica"] ;
edge [fontname="helvetica"] ;
0 [label="horsepower <= 169.0\nsquared_error = 64161992.81\nsamples = 88\nvalue = 13604.088", fillcolor="#fae5d6"] ;
1 [label="highway-mpg <= 28.5\nsquared_error = 23450747.467\nsamples = 83\nvalue = 11812.394", fillcolor="#fbeade"] ;
0 -> 1 [labeldistance=2.5, labelangle=45, headlabel="True"] ;
2 [label="highway-mpg <= 21.0\nsquared_error = 15830853.651\nsamples = 32\nvalue = 16820.756", fillcolor="#f7dbc6"] ;
1 -> 2 ;
3 [label="city-mpg <= 16.5\nsquared_error = 26568870.25\nsamples = 2\nvalue = 29029.5", fillcolor="#f0b48a"] ;
2 -> 3 ;
4 [label="squared_error = 0.0\nsamples = 1\nvalue = 34184.0", fillcolor="#eca470"] ;
3 -> 4 ;
5 [label="squared_error = 0.0\nsamples = 1\nvalue = 23875.0", fillcolor="#f3c4a3"] ;
3 -> 5 ;
6 [label="make_bmw <= 0.5\nsquared_error = 8076240.829\nsamples = 30\nvalue = 16252.907", fillcolor="#f8dcc9"] ;
2 -> 6 ;
7 [label="width <= 66.35\nsquared_error = 5574679.85\nsamples = 28\nvalue = 15802.5", fillcolor="#f8decb"] ;
6 -> 7 ;
8 [label="length <= 171.1\nsquared_error = 1935632.84\nsamples = 8\nvalue = 13781.6", fillcolor="#f9e4d5"] ;
7 -> 8 ;
9 [label="city-mpg <= 16.5\nsquared_error = 1609284.0\nsamples = 4\nvalue = 14556.0", fillcolor="#f9e2d1"] ;
8 -> 9 ;
10 [label="squared_error = 0.0\nsamples = 1\nvalue = 15645.0", fillcolor="#f8decc"] ;
9 -> 10 ;
11 [label="engine-size_70 <= 0.5\nsquared_error = 1641004.688\nsamples = 3\nvalue = 14283.75", fillcolor="#f9e3d2"] ;
9 -> 11 ;
12 [label="squared_error = 2006672.222\nsamples = 2\nvalue = 14496.667", fillcolor="#f9e2d1"] ;
11 -> 12 ;
13 [label="squared_error = 0.0\nsamples = 1\nvalue = 13645.0", fillcolor="#fae5d5"] ;
11 -> 13 ;
14 [label="curb-weight <= 2869.5\nsquared_error = 1062590.96\nsamples = 4\nvalue = 13007.2", fillcolor="#fae7d9"] ;
8 -> 14 ;
15 [label="engine-size_108 <= 0.5\nsquared_error = 245020.188\nsamples = 3\nvalue = 12541.75", fillcolor="#fae8db"] ;
14 -> 15 ;
16 [label="fuel-system_mpfi <= 0.5\nsquared_error = 7280.222\nsamples = 2\nvalue = 12824.333", fillcolor="#fae7d9"] ;
15 -> 16 ;
17 [label="squared_error = 0.0\nsamples = 1\nvalue = 12764.0", fillcolor="#fae7da"] ;
16 -> 17 ;
18 [label="squared_error = 0.0\nsamples = 1\nvalue = 12945.0", fillcolor="#fae7d9"] ;
16 -> 18 ;
19 [label="squared_error = 0.0\nsamples = 1\nvalue = 11694.0", fillcolor="#fbebdf"] ;
15 -> 19 ;
20 [label="squared_error = 0.0\nsamples = 1\nvalue = 14869.0", fillcolor="#f9e1cf"] ;
14 -> 20 ;
21 [label="peak-rpm <= 5450.0\nsquared_error = 4972568.049\nsamples = 20\nvalue = 16476.133", fillcolor="#f8dcc7"] ;
7 -> 21 ;
22 [label="horsepower <= 158.0\nsquared_error = 3973474.87\nsamples = 15\nvalue = 15982.64", fillcolor="#f8ddca"] ;
21 -> 22 ;
23 [label="compression-ratio <= 9.4\nsquared_error = 3259233.512\nsamples = 12\nvalue = 15341.526", fillcolor="#f8dfcd"] ;
22 -> 23 ;
24 [label="curb-weight <= 3047.5\nsquared_error = 3688874.139\nsamples = 9\nvalue = 14641.167", fillcolor="#f9e1d0"] ;
23 -> 24 ;
25 [label="highway-mpg <= 26.0\nsquared_error = 2621704.0\nsamples = 4\nvalue = 13304.0", fillcolor="#fae6d7"] ;
24 -> 25 ;
26 [label="squared_error = 0.0\nsamples = 1\nvalue = 11900.0", fillcolor="#fbeade"] ;
25 -> 26 ;
27 [label="curb-weight <= 2701.0\nsquared_error = 2179266.667\nsamples = 3\nvalue = 14240.0", fillcolor="#f9e3d2"] ;
25 -> 27 ;
28 [label="squared_error = 0.0\nsamples = 1\nvalue = 12170.0", fillcolor="#fae9dd"] ;
27 -> 28 ;
29 [label="bore <= 3.04\nsquared_error = 55225.0\nsamples = 2\nvalue = 15275.0", fillcolor="#f8dfcd"] ;
27 -> 29 ;
30 [label="squared_error = 0.0\nsamples = 1\nvalue = 15040.0", fillcolor="#f9e0cf"] ;
29 -> 30 ;
31 [label="squared_error = 0.0\nsamples = 1\nvalue = 15510.0", fillcolor="#f8dfcc"] ;
29 -> 31 ;
32 [label="height <= 57.7\nsquared_error = 2261732.776\nsamples = 5\nvalue = 15596.286", fillcolor="#f8decc"] ;
24 -> 32 ;
33 [label="drive-wheels_rwd <= 0.5\nsquared_error = 701605.556\nsamples = 4\nvalue = 16122.333", fillcolor="#f8ddc9"] ;
32 -> 33 ;
34 [label="squared_error = 0.0\nsamples = 1\nvalue = 14399.0", fillcolor="#f9e2d2"] ;
33 -> 34 ;
35 [label="num-of-cylinders_four <= 0.5\nsquared_error = 129156.0\nsamples = 3\nvalue = 16467.0", fillcolor="#f8dcc7"] ;
33 -> 35 ;
36 [label="squared_error = 0.0\nsamples = 1\nvalue = 15750.0", fillcolor="#f8decb"] ;
35 -> 36 ;
37 [label="horsepower <= 96.0\nsquared_error = 792.188\nsamples = 2\nvalue = 16646.25", fillcolor="#f8dbc7"] ;
35 -> 37 ;
38 [label="squared_error = 0.0\nsamples = 1\nvalue = 16695.0", fillcolor="#f8dbc6"] ;
37 -> 38 ;
39 [label="squared_error = 0.0\nsamples = 1\nvalue = 16630.0", fillcolor="#f8dbc7"] ;
37 -> 39 ;
40 [label="squared_error = 0.0\nsamples = 1\nvalue = 12440.0", fillcolor="#fae8db"] ;
32 -> 40 ;
41 [label="curb-weight <= 2943.5\nsquared_error = 240363.265\nsamples = 3\nvalue = 16542.143", fillcolor="#f8dbc7"] ;
23 -> 41 ;
42 [label="squared_error = 0.0\nsamples = 1\nvalue = 15985.0", fillcolor="#f8ddca"] ;
41 -> 42 ;
43 [label="engine-size_141 <= 0.5\nsquared_error = 13225.0\nsamples = 2\nvalue = 16960.0", fillcolor="#f7dac5"] ;
41 -> 43 ;
44 [label="squared_error = 0.0\nsamples = 1\nvalue = 17075.0", fillcolor="#f7dac4"] ;
43 -> 44 ;
45 [label="squared_error = 0.0\nsamples = 1\nvalue = 16845.0", fillcolor="#f7dac6"] ;
43 -> 45 ;
46 [label="compression-ratio <= 9.15\nsquared_error = 811969.472\nsamples = 3\nvalue = 18012.833", fillcolor="#f7d7c0"] ;
22 -> 46 ;
47 [label="wheel-base <= 101.75\nsquared_error = 70.56\nsamples = 2\nvalue = 18415.8", fillcolor="#f6d6be"] ;
46 -> 47 ;
48 [label="squared_error = 0.0\nsamples = 1\nvalue = 18399.0", fillcolor="#f6d6be"] ;
47 -> 48 ;
49 [label="squared_error = 0.0\nsamples = 1\nvalue = 18420.0", fillcolor="#f6d6be"] ;
47 -> 49 ;
50 [label="squared_error = 0.0\nsamples = 1\nvalue = 15998.0", fillcolor="#f8ddca"] ;
46 -> 50 ;
51 [label="compression-ratio <= 9.25\nsquared_error = 2661963.84\nsamples = 5\nvalue = 18943.6", fillcolor="#f6d4bb"] ;
21 -> 51 ;
52 [label="curb-weight <= 2845.5\nsquared_error = 373725.0\nsamples = 4\nvalue = 18175.0", fillcolor="#f7d6bf"] ;
51 -> 52 ;
53 [label="wheel-base <= 102.6\nsquared_error = 16900.0\nsamples = 2\nvalue = 17580.0", fillcolor="#f7d8c2"] ;
52 -> 53 ;
54 [label="squared_error = 0.0\nsamples = 1\nvalue = 17450.0", fillcolor="#f7d9c3"] ;
53 -> 54 ;
55 [label="squared_error = 0.0\nsamples = 1\nvalue = 17710.0", fillcolor="#f7d8c1"] ;
53 -> 55 ;
56 [label="engine-size_136 <= 0.5\nsquared_error = 22500.0\nsamples = 2\nvalue = 18770.0", fillcolor="#f6d4bc"] ;
52 -> 56 ;
57 [label="squared_error = 0.0\nsamples = 1\nvalue = 18620.0", fillcolor="#f6d5bd"] ;
56 -> 57 ;
58 [label="squared_error = 0.0\nsamples = 1\nvalue = 18920.0", fillcolor="#f6d4bb"] ;
56 -> 58 ;
59 [label="squared_error = 0.0\nsamples = 1\nvalue = 22018.0", fillcolor="#f4caac"] ;
51 -> 59 ;
60 [label="width <= 65.85\nsquared_error = 2660355.556\nsamples = 2\nvalue = 22258.333", fillcolor="#f4caab"] ;
6 -> 60 ;
61 [label="squared_error = 0.0\nsamples = 1\nvalue = 21105.0", fillcolor="#f5cdb1"] ;
60 -> 61 ;
62 [label="squared_error = 0.0\nsamples = 1\nvalue = 24565.0", fillcolor="#f2c2a0"] ;
60 -> 62 ;
63 [label="length <= 175.5\nsquared_error = 6312753.503\nsamples = 51\nvalue = 9063.902", fillcolor="#fcf3ec"] ;
1 -> 63 ;
64 [label="horsepower <= 83.5\nsquared_error = 2607651.83\nsamples = 38\nvalue = 8091.197", fillcolor="#fdf6f1"] ;
63 -> 64 ;
65 [label="curb-weight <= 1881.5\nsquared_error = 1933502.599\nsamples = 22\nvalue = 7150.559", fillcolor="#fef9f5"] ;
64 -> 65 ;
66 [label="squared_error = 0.0\nsamples = 1\nvalue = 13207.0", fillcolor="#fae6d8"] ;
65 -> 66 ;
67 [label="curb-weight <= 1987.0\nsquared_error = 846881.181\nsamples = 21\nvalue = 6967.03", fillcolor="#fef9f6"] ;
65 -> 67 ;
68 [label="horsepower <= 68.5\nsquared_error = 459325.673\nsamples = 10\nvalue = 6192.571", fillcolor="#fefcfa"] ;
67 -> 68 ;
69 [label="make_mitsubishi <= 0.5\nsquared_error = 180814.889\nsamples = 4\nvalue = 5614.667", fillcolor="#fffefd"] ;
68 -> 69 ;
70 [label="bore <= 3.0\nsquared_error = 23828.25\nsamples = 3\nvalue = 5327.5", fillcolor="#fffffe"] ;
69 -> 70 ;
71 [label="squared_error = 0.0\nsamples = 1\nvalue = 5572.0", fillcolor="#fffefd"] ;
70 -> 71 ;
72 [label="width <= 63.9\nsquared_error = 5202.0\nsamples = 2\nvalue = 5246.0", fillcolor="#ffffff"] ;
70 -> 72 ;
73 [label="squared_error = 0.0\nsamples = 1\nvalue = 5348.0", fillcolor="#fffffe"] ;
72 -> 73 ;
74 [label="squared_error = 0.0\nsamples = 1\nvalue = 5195.0", fillcolor="#ffffff"] ;
72 -> 74 ;
75 [label="squared_error = 0.0\nsamples = 1\nvalue = 6189.0", fillcolor="#fefcfa"] ;
69 -> 75 ;
76 [label="curb-weight <= 1899.0\nsquared_error = 229868.0\nsamples = 6\nvalue = 6626.0", fillcolor="#fefbf8"] ;
68 -> 76 ;
77 [label="squared_error = 0.0\nsamples = 1\nvalue = 5499.0", fillcolor="#fffefe"] ;
76 -> 77 ;
78 [label="curb-weight <= 1948.0\nsquared_error = 55338.286\nsamples = 5\nvalue = 6787.0", fillcolor="#fefaf7"] ;
76 -> 78 ;
79 [label="bore <= 3.09\nsquared_error = 11973.76\nsamples = 4\nvalue = 6650.2", fillcolor="#fefaf8"] ;
78 -> 79 ;
80 [label="body-style_hatchback <= 0.5\nsquared_error = 529.0\nsamples = 2\nvalue = 6552.0", fillcolor="#fefbf8"] ;
79 -> 80 ;
81 [label="squared_error = 0.0\nsamples = 1\nvalue = 6575.0", fillcolor="#fefbf8"] ;
80 -> 81 ;
82 [label="squared_error = 0.0\nsamples = 1\nvalue = 6529.0", fillcolor="#fefbf8"] ;
80 -> 82 ;
83 [label="num-of-doors_two <= 0.5\nsquared_error = 8888.889\nsamples = 2\nvalue = 6715.667", fillcolor="#fefaf8"] ;
79 -> 83 ;
84 [label="squared_error = 0.0\nsamples = 1\nvalue = 6849.0", fillcolor="#fefaf7"] ;
83 -> 84 ;
85 [label="squared_error = 0.0\nsamples = 1\nvalue = 6649.0", fillcolor="#fefaf8"] ;
83 -> 85 ;
86 [label="squared_error = 0.0\nsamples = 1\nvalue = 7129.0", fillcolor="#fef9f5"] ;
78 -> 86 ;
87 [label="compression-ratio <= 8.75\nsquared_error = 364854.532\nsamples = 11\nvalue = 7537.684", fillcolor="#fdf8f3"] ;
67 -> 87 ;
88 [label="squared_error = 0.0\nsamples = 1\nvalue = 6785.0", fillcolor="#fefaf7"] ;
87 -> 88 ;
89 [label="curb-weight <= 2115.5\nsquared_error = 307122.527\nsamples = 10\nvalue = 7678.812", fillcolor="#fdf7f3"] ;
87 -> 89 ;
90 [label="make_plymouth <= 0.5\nsquared_error = 129906.24\nsamples = 6\nvalue = 7336.4", fillcolor="#fef8f4"] ;
89 -> 90 ;
91 [label="highway-mpg <= 37.5\nsquared_error = 93074.667\nsamples = 5\nvalue = 7408.0", fillcolor="#fef8f4"] ;
90 -> 91 ;
92 [label="body-style_sedan <= 0.5\nsquared_error = 24969.188\nsamples = 3\nvalue = 7092.25", fillcolor="#fef9f6"] ;
91 -> 92 ;
93 [label="height <= 55.55\nsquared_error = 2352.25\nsamples = 2\nvalue = 7246.5", fillcolor="#fef9f5"] ;
92 -> 93 ;
94 [label="squared_error = 0.0\nsamples = 1\nvalue = 7198.0", fillcolor="#fef9f5"] ;
93 -> 94 ;
95 [label="squared_error = 0.0\nsamples = 1\nvalue = 7295.0", fillcolor="#fef8f5"] ;
93 -> 95 ;
96 [label="squared_error = 0.0\nsamples = 1\nvalue = 6938.0", fillcolor="#fefaf6"] ;
92 -> 96 ;
97 [label="wheel-base <= 94.7\nsquared_error = 3993.84\nsamples = 2\nvalue = 7660.6", fillcolor="#fdf7f3"] ;
91 -> 97 ;
98 [label="squared_error = 0.0\nsamples = 1\nvalue = 7609.0", fillcolor="#fdf7f3"] ;
97 -> 98 ;
99 [label="squared_error = 0.0\nsamples = 1\nvalue = 7738.0", fillcolor="#fdf7f2"] ;
97 -> 99 ;
100 [label="squared_error = 0.0\nsamples = 1\nvalue = 6692.0", fillcolor="#fefaf8"] ;
90 -> 100 ;
101 [label="wheel-base <= 96.3\nsquared_error = 81388.25\nsamples = 4\nvalue = 8249.5", fillcolor="#fdf5f0"] ;
89 -> 101 ;
102 [label="curb-weight <= 2616.0\nsquared_error = 39200.0\nsamples = 2\nvalue = 8498.0", fillcolor="#fdf5ef"] ;
101 -> 102 ;
103 [label="squared_error = 0.0\nsamples = 1\nvalue = 8358.0", fillcolor="#fdf5ef"] ;
102 -> 103 ;
104 [label="squared_error = 0.0\nsamples = 1\nvalue = 8778.0", fillcolor="#fdf4ed"] ;
102 -> 104 ;
105 [label="bore <= 3.315\nsquared_error = 72.0\nsamples = 2\nvalue = 8001.0", fillcolor="#fdf6f1"] ;
101 -> 105 ;
106 [label="squared_error = 0.0\nsamples = 1\nvalue = 7995.0", fillcolor="#fdf6f1"] ;
105 -> 106 ;
107 [label="squared_error = 0.0\nsamples = 1\nvalue = 8013.0", fillcolor="#fdf6f1"] ;
105 -> 107 ;
108 [label="highway-mpg <= 29.5\nsquared_error = 939331.542\nsamples = 16\nvalue = 9275.704", fillcolor="#fcf2eb"] ;
64 -> 108 ;
109 [label="width <= 64.1\nsquared_error = 715738.16\nsamples = 4\nvalue = 10751.2", fillcolor="#fbeee4"] ;
108 -> 109 ;
110 [label="compression-ratio <= 8.95\nsquared_error = 48841.0\nsamples = 2\nvalue = 9759.0", fillcolor="#fcf1e9"] ;
109 -> 110 ;
111 [label="squared_error = 0.0\nsamples = 1\nvalue = 9980.0", fillcolor="#fcf0e7"] ;
110 -> 111 ;
112 [label="squared_error = 0.0\nsamples = 1\nvalue = 9538.0", fillcolor="#fcf1ea"] ;
110 -> 112 ;
113 [label="wheel-base <= 95.25\nsquared_error = 66490.889\nsamples = 2\nvalue = 11412.667", fillcolor="#fbece0"] ;
109 -> 113 ;
114 [label="squared_error = 0.0\nsamples = 1\nvalue = 11595.0", fillcolor="#fbebdf"] ;
113 -> 114 ;
115 [label="squared_error = 0.0\nsamples = 1\nvalue = 11048.0", fillcolor="#fbede2"] ;
113 -> 115 ;
116 [label="compression-ratio <= 9.05\nsquared_error = 382902.231\nsamples = 12\nvalue = 8940.364", fillcolor="#fdf3ed"] ;
108 -> 116 ;
117 [label="compression-ratio <= 7.55\nsquared_error = 188234.665\nsamples = 10\nvalue = 8755.421", fillcolor="#fdf4ed"] ;
116 -> 117 ;
118 [label="num-of-doors_two <= 0.5\nsquared_error = 102755.556\nsamples = 2\nvalue = 9505.667", fillcolor="#fcf1ea"] ;
117 -> 118 ;
119 [label="squared_error = 0.0\nsamples = 1\nvalue = 9279.0", fillcolor="#fcf2eb"] ;
118 -> 119 ;
120 [label="squared_error = 0.0\nsamples = 1\nvalue = 9959.0", fillcolor="#fcf0e8"] ;
118 -> 120 ;
121 [label="length <= 173.8\nsquared_error = 78935.812\nsamples = 8\nvalue = 8614.75", fillcolor="#fdf4ee"] ;
117 -> 121 ;
122 [label="engine-size_110 <= 0.5\nsquared_error = 43718.889\nsamples = 5\nvalue = 8410.333", fillcolor="#fdf5ef"] ;
121 -> 122 ;
123 [label="city-mpg <= 26.0\nsquared_error = 11838.188\nsamples = 4\nvalue = 8474.75", fillcolor="#fdf5ef"] ;
122 -> 123 ;
124 [label="length <= 165.15\nsquared_error = 835.44\nsamples = 2\nvalue = 8522.6", fillcolor="#fdf5ef"] ;
123 -> 124 ;
125 [label="squared_error = 0.0\nsamples = 1\nvalue = 8558.0", fillcolor="#fdf4ee"] ;
124 -> 125 ;
126 [label="squared_error = 0.0\nsamples = 1\nvalue = 8499.0", fillcolor="#fdf5ef"] ;
124 -> 126 ;
127 [label="curb-weight <= 2243.5\nsquared_error = 20000.0\nsamples = 2\nvalue = 8395.0", fillcolor="#fdf5ef"] ;
123 -> 127 ;
128 [label="squared_error = 0.0\nsamples = 1\nvalue = 8195.0", fillcolor="#fdf6f0"] ;
127 -> 128 ;
129 [label="squared_error = 0.0\nsamples = 1\nvalue = 8495.0", fillcolor="#fdf5ef"] ;
127 -> 129 ;
130 [label="squared_error = 0.0\nsamples = 1\nvalue = 7895.0", fillcolor="#fdf7f2"] ;
122 -> 130 ;
131 [label="highway-mpg <= 31.5\nsquared_error = 1414.531\nsamples = 3\nvalue = 8877.571", fillcolor="#fdf3ed"] ;
121 -> 131 ;
132 [label="squared_error = 0.0\nsamples = 2\nvalue = 8921.0", fillcolor="#fdf3ed"] ;
131 -> 132 ;
133 [label="squared_error = 0.0\nsamples = 1\nvalue = 8845.0", fillcolor="#fdf4ed"] ;
131 -> 133 ;
134 [label="engine-size_110 <= 0.5\nsquared_error = 27222.222\nsamples = 2\nvalue = 10111.667", fillcolor="#fcf0e7"] ;
116 -> 134 ;
135 [label="squared_error = 0.0\nsamples = 1\nvalue = 9995.0", fillcolor="#fcf0e7"] ;
134 -> 135 ;
136 [label="squared_error = 0.0\nsamples = 1\nvalue = 10345.0", fillcolor="#fcefe6"] ;
134 -> 136 ;
137 [label="engine-size_122 <= 0.5\nsquared_error = 6343503.76\nsamples = 13\nvalue = 11889.381", fillcolor="#fbeade"] ;
63 -> 137 ;
138 [label="height <= 52.5\nsquared_error = 6489575.802\nsamples = 8\nvalue = 13964.556", fillcolor="#f9e4d4"] ;
137 -> 138 ;
139 [label="body-style_hatchback <= 0.5\nsquared_error = 27222.222\nsamples = 2\nvalue = 11432.333", fillcolor="#fbebe0"] ;
138 -> 139 ;
140 [label="squared_error = 0.0\nsamples = 1\nvalue = 11199.0", fillcolor="#fbece1"] ;
139 -> 140 ;
141 [label="squared_error = 0.0\nsamples = 1\nvalue = 11549.0", fillcolor="#fbebe0"] ;
139 -> 141 ;
142 [label="horsepower <= 91.5\nsquared_error = 4911640.556\nsamples = 6\nvalue = 15230.667", fillcolor="#f9e0ce"] ;
138 -> 142 ;
143 [label="body-style_sedan <= 0.5\nsquared_error = 604506.25\nsamples = 2\nvalue = 13067.5", fillcolor="#fae6d8"] ;
142 -> 143 ;
144 [label="squared_error = 0.0\nsamples = 1\nvalue = 12290.0", fillcolor="#fae9dc"] ;
143 -> 144 ;
145 [label="squared_error = 0.0\nsamples = 1\nvalue = 13845.0", fillcolor="#f9e4d4"] ;
143 -> 145 ;
146 [label="curb-weight <= 3224.5\nsquared_error = 3555740.188\nsamples = 4\nvalue = 16312.25", fillcolor="#f8dcc8"] ;
142 -> 146 ;
147 [label="aspiration_turbo <= 0.5\nsquared_error = 3548886.889\nsamples = 3\nvalue = 15766.333", fillcolor="#f8decb"] ;
146 -> 147 ;
148 [label="bore <= 3.56\nsquared_error = 383780.25\nsamples = 2\nvalue = 17049.5", fillcolor="#f7dac5"] ;
147 -> 148 ;
149 [label="squared_error = 0.0\nsamples = 1\nvalue = 16430.0", fillcolor="#f8dcc8"] ;
148 -> 149 ;
150 [label="squared_error = 0.0\nsamples = 1\nvalue = 17669.0", fillcolor="#f7d8c2"] ;
148 -> 150 ;
151 [label="squared_error = 0.0\nsamples = 1\nvalue = 13200.0", fillcolor="#fae6d8"] ;
147 -> 151 ;
152 [label="squared_error = 0.0\nsamples = 1\nvalue = 17950.0", fillcolor="#f7d7c0"] ;
146 -> 152 ;
153 [label="num-of-doors_two <= 0.5\nsquared_error = 581865.833\nsamples = 5\nvalue = 10333.0", fillcolor="#fcefe6"] ;
137 -> 153 ;
154 [label="curb-weight <= 2412.0\nsquared_error = 166844.44\nsamples = 4\nvalue = 10630.6", fillcolor="#fbeee4"] ;
153 -> 154 ;
155 [label="squared_error = 0.0\nsamples = 1\nvalue = 10245.0", fillcolor="#fcefe6"] ;
154 -> 155 ;
156 [label="city-mpg <= 26.5\nsquared_error = 36314.16\nsamples = 3\nvalue = 11016.2", fillcolor="#fbede2"] ;
154 -> 156 ;
157 [label="squared_error = 0.0\nsamples = 1\nvalue = 11245.0", fillcolor="#fbece1"] ;
156 -> 157 ;
158 [label="bore <= 3.35\nsquared_error = 2357.556\nsamples = 2\nvalue = 10863.667", fillcolor="#fbede3"] ;
156 -> 158 ;
159 [label="squared_error = 0.0\nsamples = 1\nvalue = 10898.0", fillcolor="#fbede3"] ;
158 -> 159 ;
160 [label="squared_error = 0.0\nsamples = 1\nvalue = 10795.0", fillcolor="#fbede3"] ;
158 -> 160 ;
161 [label="squared_error = 0.0\nsamples = 1\nvalue = 8845.0", fillcolor="#fdf4ed"] ;
153 -> 161 ;
162 [label="width <= 71.45\nsquared_error = 22657852.84\nsamples = 5\nvalue = 36358.6", fillcolor="#eb9d66"] ;
0 -> 162 [labeldistance=2.5, labelangle=-45, headlabel="False"] ;
163 [label="bore <= 3.625\nsquared_error = 2776405.438\nsamples = 4\nvalue = 34098.25", fillcolor="#eca471"] ;
162 -> 163 ;
164 [label="squared_error = 0.0\nsamples = 1\nvalue = 36880.0", fillcolor="#eb9c63"] ;
163 -> 164 ;
165 [label="wheel-base <= 101.25\nsquared_error = 1909666.122\nsamples = 3\nvalue = 33700.857", fillcolor="#eda673"] ;
163 -> 165 ;
166 [label="squared_error = 0.0\nsamples = 1\nvalue = 34028.0", fillcolor="#eca571"] ;
165 -> 166 ;
167 [label="squared_error = 2613600.0\nsamples = 2\nvalue = 33570.0", fillcolor="#eda673"] ;
165 -> 167 ;
168 [label="squared_error = 0.0\nsamples = 1\nvalue = 45400.0", fillcolor="#e58139"] ;
162 -> 168 ;
}